{"input_weights": [[0.9958904428198048, 1.0550912298547859, -0.3472230393261794, 0.760784172695846, -0.5705026789812733, -0.5219274683054911, 0.24466317104266677, 0.1700653794903171, -0.8434009993319175, -0.5163402801497659, -0.7471836226486356, 1.023883941830569, 0.055183648370579694, 0.2665827996012566, -0.7305519717149476, 0.7744438894980994, 0.7741523854804133, -0.44822909628265656, 0.1835328040665764, -0.8090280420749821, -0.3541644309602795, -0.4636392934451668, 0.22430597026864807, 0.7641944084408242, 0.8579770107633079, -0.22064263218954555, 0.07446709728923859, 0.11959719198191351, 0.5327121554084876, -0.3242608465869218, 0.6484817994438985, 0.7331091742411046, 0.2210718847430338, 0.5679070992467493, 0.3121961304444148, -0.29656025519224477, -0.4311311562350373, -0.7593343141387403, 0.5020672978949401, 0.3203651437525358, 0.15634643280754698, 0.27973261380636033, -0.35163744195026947, -0.01639182817444172, -0.5113391762589806, -0.6756731048426196, 0.7846402264039952, -0.5716941860891833, 0.40076200826453817, -0.4707884086169892, 0.08665775512731329, -0.5464171673085002, 0.4718238786144898, 0.39171494274666274, 0.4275113829669133, 0.11434894812226595, 0.7669548685778144, 0.4545368300892573, -0.18348604459878115, 0.8946286689657832, 0.6378755009752054, -0.816385847350894, -0.4875272298532956, -0.910154944885131, -0.37154468843133903, -0.32175885847545793, 0.18591286656820707, -0.7698818561254813, 0.2798274701946729, -0.0938566904524965, -0.452568350310267, 0.4776860431970457, 0.33658819358335423, 0.1002103679830193, 0.3044989101896468, -0.8453032545937076, -0.5368145961238178, -0.3973989087026662, 0.9954115058044544, 0.8707496484350389, -0.22758714940941407, 0.4782987326978599, 0.03467124196662574, 0.6677085779906567, 0.021555512547470176, -0.45692889441072293, 0.6371960998895404, 0.707933467885984, -0.48161293392895443, 0.5129608148433135, 0.4630998090977579, -0.789325217214721, 0.27796431366440066, -1.071277409116439, 0.5709071486143696, 0.6338393883225117, -0.0637450117321641, 0.8923898150892059, -0.12526964135267446, -0.06715226209426121], [-0.48447770006341095, 0.9601346130357212, -0.22982071112134858, -0.7117277142880422, -0.1556588208822414, -0.7901610537876879, -0.43667478089956907, -0.7925331284710557, -0.8382382522240377, 0.5279267365682171, 0.6400638041347877, 0.64261022524973, -0.14362722303240955, -0.30417018584339445, 0.44559345810749273, -0.582788377160643, -0.18937772173534465, -0.38266848797601655, -0.8088276556497398, -0.796033565502319, 0.5231875771827572, 0.995399424046148, 0.3108871681569402, -0.7403248292105175, 0.3525628503178221, -0.9838196217116336, -0.38997729663121655, -0.15770268193181217, -0.21336005530446991, -0.935405588044388, -0.49582213090208754, 0.5147733120574091, -0.2712028245062353, -0.2209518775992109, 0.6176888303085222, -0.8153430519350867, 0.5617071312503846, -0.5282416399630043, -0.5978300708544209, -0.90874548416683, -0.2523607608170618, -0.7616608952747966, -0.012307206693507928, 0.807607958001748, 0.6903133460363897, 0.49786928685571996, -0.033199440722260755, 0.3601328321943865, 0.3871494563645537, -0.1746041007916127, 0.5655563834194723, -0.6163201650251009, 0.01965576403739106, 0.6549209259203137, -0.34756914866320276, -0.316145186063631, -0.3748247977834707, -0.6170947804011451, 0.4707811094159584, -0.7423740531395677, 0.7161247844241132, -0.3432462946793462, -0.11853708065506753, 0.29281670120008296, -0.5799260297883582, 0.6658201038326299, 0.5303306593227328, 0.4615308569814005, -0.2827276276790838, -0.6434212734547413, -0.8735265198435909, 0.5954083641963337, 0.5921087495278291, -0.9963568716195969, 0.9140969285277464, 0.03755879846232639, 0.03826342313361477, 0.6248101061802165, -0.4331697674135841, -0.8790870402206703, 0.9222686699110064, 0.21206457408522272, -0.6947581354984563, 0.04280563566627295, 0.9006729425445812, 0.4547771780313219, 0.8765969612776815, 0.5323181019030526, -0.16282578288234179, -0.08377942115631429, 0.5556797903263386, -0.5484626117607115, 0.5425252572295164, -0.8692167570043751, -0.8501088911975918, -0.03494169320344298, 0.7765945076884835, 0.15566035363683936, -0.7117106531979096, -0.2846307587495896], [0.09632948153039472, 0.8821485768184206, -0.12033363451129311, 0.8446249853481593, -0.30433998796054923, 0.31190476098870046, 0.5162289015579272, -0.5698635541739335, -0.10065334212379223, -0.2303693977589432, 0.3203488922814582, -0.21123902238375314, 0.4859683791737469, 0.3153188815906695, 0.8057419157366387, 0.02444731123619654, -0.4264711110012925, 0.8114869559881047, 0.6633952516665682, 0.2854389983675294, 0.9641404558728004, -0.03790757340471244, 0.46612953481177866, -0.759756637531466, 0.8082834295986984, -0.6059665012241445, 0.44153543713038235, 0.1840215183455025, 0.9063415963460523, -0.29643368162603817, -0.8962259948697836, -0.6392063003928193, 0.4593477914919733, -0.7880658255573567, 0.23036601425935704, 0.09898632773963037, -0.532766913004136, -0.09983183365824483, 0.8807181888136817, -0.24570094796383027, 0.36685963299021523, 0.4560403337119442, 0.02156533632285604, -0.11243981165789033, -0.6103120972693445, -0.8141966839773115, 0.18388251953318221, 0.22537227864791795, 0.12101770437042789, -0.5412032914671585, -0.20081083357087046, -0.37421553879664216, 0.39366727239347954, -0.5609417023164228, 0.7512875910318448, 0.5320628513835032, 0.9443671483634717, 0.5929613345279566, 0.3125708261073335, 0.15113550582003843, -0.04482427842655742, -0.8559883942856769, 0.9403151191246731, -0.4291854754317999, 0.7963601055658847, 0.9916035144923122, 0.012266668697709362, 0.05713572454485745, 0.11511009238399689, -0.3722298118736865, 0.924849462828649, 0.5433387499254159, 0.12319962915754241, 0.6576995723581828, -0.1450171139302342, 0.07571949133523088, 0.592493207386627, -0.018723600825273936, 0.3524300026187508, -0.33584824256195533, 0.9886520655891574, 0.7408266762519088, 0.5470444320757114, 0.9541720225650807, -0.2943286059916959, 1.052750893360224, 0.6849403785551286, -0.4420757994313296, 0.263497913277324, -0.7638391625979368, 0.8241707899160706, 0.26973644348453807, -0.6544340674051123, 0.6650611082943599, -0.18049936032760222, -0.5816215532395261, 0.49336225258298144, 0.31055358673502736, -0.022499256596744822, 0.49217462399675743]], "output_weights": [[-0.05226523448606996, -0.2974260447112076], [-0.5475941476304791, -0.3987316684979966], [-0.1879612882838715, 0.36817479417982074], [-0.05462438632312192, -0.25754701004554037], [0.2670860695111159, 0.9864232351409495], [-0.2469343064312242, 0.38357499290034286], [-0.43298725954615375, -0.10347109672486936], [-0.6187606256987387, 0.7345024898639423], [0.29032020393879054, -0.1429867178682617], [-0.3565011323345004, -0.8323339981198706], [0.9665905783031813, -0.481041268167455], [-0.6745764452303846, 0.16991429704018698], [-0.1334152618410356, -0.23570994460528394], [-0.3000470198514576, -0.6202275725321825], [-0.26909867823507083, 0.5565056878618607], [-0.3476183674558099, 0.25979420294391015], [0.6370122400539159, 0.16575928170026138], [0.2341853060007008, 0.10866200316999551], [0.4833132883129533, -0.24157037423517078], [0.11979174692313195, -0.6050373466823378], [0.8017857094085161, 0.9011271184416721], [0.307207382560441, 0.2502293630906482], [0.48456367804607087, -0.5770379672158941], [0.7791232473777541, 0.23217126210627329], [-0.5767204982076879, -0.30344585367122856], [-0.5818842977492997, 0.385115458787263], [-0.7652025956544524, -0.1128639336771144], [-0.012745204320549118, 0.11550879049977374], [0.9558229152528206, 0.08845321980375206], [0.7845282997100352, -0.7397997778690469], [0.3969179419601797, -0.8678858677828891], [-0.109304005692097, -0.3878811562206585], [0.2948969870257339, -0.4893669798337778], [-0.2514851679945138, -0.20415012040762262], [-0.5983705111763012, 0.6385310383220495], [-0.6339181787294808, -0.9887628076974257], [-0.7822316574203763, -0.5728005033121051], [0.6960814717923617, -0.16098369004637852], [-0.7056555348533596, -1.0143315887357858], [-0.7385785110787221, 0.6106063973679012], [-0.5765566617065306, -0.6933805640341499], [0.8021321282499358, 0.6604344684017599], [0.5709211252256317, 0.04327200484640364], [0.5668139067126751, 0.7209034774687082], [-0.651147616618129, 0.29429062256683175], [-0.7239037931756965, 0.6054006561101558], [0.06737013008052926, -0.8088699596351528], [-0.3911984402815744, -0.12688865709225333], [-0.27079625564034737, -0.3501199471669424], [0.3349952622517526, -0.011491137643269126], [0.7422418332276741, 0.05511537553877761], [-0.7129441430361686, -0.025729576598841595], [0.8052022557208953, 0.19412787284379862], [0.22448727446611902, -0.28113563669871106], [-0.4357084071945229, 0.43610743155402176], [0.6505546344128238, 0.11576304535105675], [0.5301158656925323, -1.0287176395758668], [-0.38990971842181216, -0.7478016886941995], [-0.7892536456696377, 0.7255816638886511], [-0.6505461659659614, -0.9210880405233565], [-0.5266414969091058, 0.1149996722928478], [0.22696454212505845, -0.6417494623557807], [-0.2632278014433707, -0.5455364619149363], [0.5328136860874165, 0.3227521131163064], [0.11346307056904952, -0.2615267949321068], [1.0139246000233288, -0.696471497426345], [-0.2665432335499883, -0.4543745807646099], [-0.5645496954803966, 0.5821609856727206], [0.3022395509373427, 0.2180810800709628], [0.7908940683303831, 0.7921065844093107], [-0.2473430811523861, -0.6586557226393636], [-0.5159891120167596, 0.6798665884405395], [0.4850022771568821, 0.8140506444872866], [-0.8143274186981022, 0.22605532878914003], [0.5396929886834326, 0.1534803804823392], [0.9987427100737742, -0.8440911446010018], [-0.006216142845186492, -0.5158594543234751], [-0.3625313986530532, -0.03125773401677765], [-0.4182055302022293, -0.16612115467371977], [-0.1547894586819136, 0.7878743699379004], [0.06610132673211498, -0.46971620621782884], [-0.08281321096514392, -0.12448927437450358], [0.3838417457472069, -0.6652227964887452], [-0.07354401003931892, -0.05749335420452051], [-0.105459232496432, 0.14089066336917794], [0.9008928646936939, 0.17153072161640856], [-0.4758097042910543, 0.009522640972282942], [-1.0093304595980608, 0.9279661224785839], [0.2234094368692948, 0.5234347828967629], [-0.7031860986825642, -0.9690589063706164], [-0.4444605631149505, 0.7526690614149154], [0.6591055913977716, -0.9277285770599619], [-0.005990017002731975, 0.6007846609820917], [0.8098002977091022, 0.9830588307693124], [0.3925944094954699, -0.916771677785146], [-0.21838266256237898, -0.291303248583683], [-0.07802490413446579, -0.8188795594018401], [0.6440133823383475, 0.34059149168553343], [-0.6991827005276183, -0.855264878393717], [-0.0953164185740847, -0.8114352183895392]]}