{"input_weights": [[-0.2884954418169207, 0.36404446791969214, -0.812031320062283, 0.530743831721885, -0.3199321087180835, -0.8070171259132586, -0.0574717631319126, 0.4584815803366949, 0.26283806531277354, 0.5971525132939208, -0.3518458334675699, -0.6947550165818017, 0.607847891333442, 0.021618120437325295, -0.3023729486885077, 0.4460301471883845, -0.19410605843357803, -0.038092313439778654, 0.35631998289465666, 0.5619513521394693, 0.7967080898953449, 0.8992922578023974, -0.4350074566721027, 0.8578833291265535, 0.6960209964938348, 1.0728652130309009, 0.7762528419086135, 0.43918400151746834, 0.31224329474977, 0.6895250853703094], [0.6424956898509655, 0.7869882194497885, -0.7531356718429342, 0.0598253782408751, -0.9524069289639397, -0.9053225264610083, -0.8099543157317096, 0.8583929201439722, 0.5185359847739632, 0.47797408921528967, -0.4120146284828635, -0.21543043390425912, -0.32519925826922763, -0.8856086661585021, 0.8891024288730116, 0.0898674163450581, -0.28290819879086415, -0.3227565803334881, -0.8501970917431352, -0.7504781961869716, -0.4438022041283201, -0.20340224394188322, -0.059972201127252406, 0.3630522507442937, -0.8227371989858135, -0.6642274923741849, 0.7607674692210691, -0.30718313584005486, 0.5214172285154808, -0.7122406710209203], [0.7254192189638063, 0.8281669128373914, -0.7414795416844262, -0.1753012346961468, 0.7333647320797987, 0.8425024731549468, -0.5170124548663354, 0.6580650954436891, -0.34069001815815436, -0.8885520447424282, 0.854302920595937, -0.32110225061263314, -0.8827131166137786, 0.6491366039174452, 0.00015236051588143527, -0.9668404326217636, 0.314138676737094, -1.0107727033186147, 0.040818040166094555, -0.7233185878850417, -0.6023385131634799, 0.9115215368928579, -0.890176976275606, -0.06587050128727297, 0.591924913452678, -0.6949591038507628, 0.19837321055534837, -0.4182594127634286, 0.37726005909236004, -0.6029053008534989]], "output_weights": [[0.42166646615113346, -0.8745149110615685], [-0.08727894092995928, -0.6916155955132283], [-0.6297743385750291, 0.774827221945814], [-0.6682394054864148, 0.03817600410941159], [0.734146996062979, 0.9668410257452554], [0.5793903922932023, 0.20466829202618947], [-0.060689802362203074, -0.1290689982701128], [-0.27718345451704096, 0.7276639242442299], [-0.06305359643155203, -0.6692738590259486], [-0.5814338949365013, -0.028189878553073037], [0.3952333769408905, -0.42042504922573226], [0.8518421324900176, 0.8170448562621332], [0.30909521326941825, 0.21162221677008894], [0.11383297399167269, -0.6746373530135192], [-0.1720762918610088, 0.7067919849321929], [-0.8597008933215591, -0.5141713510142355], [0.3884913189850133, 0.2691095330644677], [-0.24256163236386777, 0.2994644063582761], [0.5930545931318292, -0.0533501117696589], [0.5569906568542881, 0.7146031522687215], [-0.3018597216716111, -0.9409136624486664], [-0.5717462476836184, -0.6613848099311764], [0.267653960674901, 0.16629339616287697], [0.053274124128115746, -0.3103196049285228], [0.35299926143496585, 0.6650826069136001], [-0.917444260813536, 0.28264272499315224], [-1.0449335356394456, -1.042605423916818], [0.6142444841904913, 0.19900392041040776], [0.4193205740474204, -0.006236556223918025], [0.5052206507757849, -0.9470737711956582]]}