{"input_weights": [[-0.47845404094070804, 0.37042104974898155, -0.6972980942268121, 0.6023083727969264, -0.4265877209540338, -0.8252244986061894, -0.029432249468491968, 0.326111482460233, 0.23052458667448616, 0.5104472622256182, -0.35399967752684963, -0.7043102105187528, 0.6603817679346395, 0.05677366251070547, -0.3377763465561668, 0.39911460660921805, -0.13730805544641989, 0.10554721440523367, 0.33567479946827666, 0.6730393289892816, 0.8318933538188975, 0.9005564878087002, -0.41382053488861775, 0.7579993331313207, 0.6527651868946502, 1.1781981224941052, 0.5813007532220045, 0.5022121830721051, 0.25711230782010963, 0.7172300001672531], [-0.08073461097236896, 0.766703911453393, -0.8681283524339565, 0.08160270022263173, -0.7276991238981203, -0.7935998346512362, -0.863287662076585, 1.0101495820572084, 0.5311723527776989, 0.5747573339519307, -0.36431769467239683, 0.5727432003598488, 0.008005503584213695, -0.925261705111132, 0.9399056733394968, 0.5658017816272651, -0.38911916998856344, -0.005439809598694761, -0.7909293284421064, -0.00866224579628774, -0.7759678079480888, -0.6773838712202406, 0.05328854134033561, 0.5362494512546082, -0.722410937499464, -0.5347422570162791, 1.011170043985206, 0.05701055517628505, 0.6409737585752091, -0.8165632606939384], [0.9294146215838969, 0.8829599059451761, -0.8988440859390944, -0.2837433761088623, 0.7218710750164323, 0.9651094698975833, -0.5076580143528072, 0.5652555128901544, -0.26044966586690443, -1.0437336039072624, 1.0078299489995424, -0.395570424277388, -0.9062305804770533, 0.7055896340644623, -0.07139883723550633, -1.188319601871045, 0.37342561446123174, -1.1249428377172446, 0.0916203889803374, -0.8440632731951735, -0.49683618272754765, 0.9082832250302453, -0.9072735447936154, -0.04659382618571022, 0.5837544953559093, -0.8122363966050484, 0.22601537004106229, -0.42327985073789426, 0.42312743940946, -0.47525606355584105]], "output_weights": [[0.4922227348242939, -0.9507850566661591], [-0.028961668262495154, -0.7023284121804763], [-0.6908013051221277, 0.7536368934150739], [-0.6041499733464845, 0.38221399029801273], [0.8029307609108359, 0.799208901472398], [0.7194854242848616, 0.027865079590560598], [-0.13765260747453947, -0.1990566190872566], [-0.20991656175168316, 0.7516779156243925], [-0.17152752309351035, -0.5721895627437337], [-0.8222185550692238, 0.17224889789278294], [0.6366975493963495, -0.6009514119721037], [0.752615404048102, 0.7890479624785559], [0.2560656050611155, 0.5086365774771843], [0.09953469098409098, -0.8576680450198761], [-0.0937849952978623, 0.8589116051978745], [-1.0701012262025735, -0.19673010383278242], [0.5394373666544675, 0.15214742827800692], [-0.2835711623601078, 0.5044070291542827], [0.5311982654827726, -0.20221100135089876], [0.4595625504530348, 0.7705470526004785], [-0.40622743027925207, -1.0036740503149673], [-0.5188081748088146, -0.7970371734283737], [0.021416848266415024, 0.13179499369007705], [-0.06966426740319215, -0.10500553511634292], [0.32435204202692186, 0.4685754607987549], [-1.057175412361925, 0.2728521033508655], [-1.077791895218305, -0.9486804685617671], [0.6206648468685139, 0.4332874990134357], [0.4075976786307604, -0.01964603790797798], [0.38629427023670354, -1.0501216681759489]]}